digraph Tree {
node [shape=box, style="filled, rounded", color="black", fontname=helvetica] ;
edge [fontname=helvetica] ;
0 [label="petal width (cm) <= 0.75\ngini = 0.66\nsamples = 98\nvalue = [60, 47, 43]\nclass = setosa", fillcolor="#fcefe6"] ;
1 [label="gini = 0.0\nsamples = 38\nvalue = [60, 0, 0]\nclass = setosa", fillcolor="#e58139"] ;
0 -> 1 [labeldistance=2.5, labelangle=45, headlabel="True"] ;
2 [label="sepal length (cm) <= 6.15\ngini = 0.5\nsamples = 60\nvalue = [0, 47, 43]\nclass = versicolor", fillcolor="#eefdf4"] ;
0 -> 2 [labeldistance=2.5, labelangle=-45, headlabel="False"] ;
3 [label="petal width (cm) <= 1.65\ngini = 0.32\nsamples = 25\nvalue = [0, 28, 7]\nclass = versicolor", fillcolor="#6aeca0"] ;
2 -> 3 ;
4 [label="gini = 0.0\nsamples = 18\nvalue = [0, 27, 0]\nclass = versicolor", fillcolor="#39e581"] ;
3 -> 4 ;
5 [label="sepal width (cm) <= 3.1\ngini = 0.22\nsamples = 7\nvalue = [0, 1, 7]\nclass = virginica", fillcolor="#9355e9"] ;
3 -> 5 ;
6 [label="gini = 0.0\nsamples = 6\nvalue = [0, 0, 7]\nclass = virginica", fillcolor="#8139e5"] ;
5 -> 6 ;
7 [label="gini = 0.0\nsamples = 1\nvalue = [0, 1, 0]\nclass = versicolor", fillcolor="#39e581"] ;
5 -> 7 ;
8 [label="petal width (cm) <= 1.75\ngini = 0.45\nsamples = 35\nvalue = [0, 19, 36]\nclass = virginica", fillcolor="#c4a2f3"] ;
2 -> 8 ;
9 [label="gini = 0.0\nsamples = 13\nvalue = [0, 19, 0]\nclass = versicolor", fillcolor="#39e581"] ;
8 -> 9 ;
10 [label="gini = 0.0\nsamples = 22\nvalue = [0, 0, 36]\nclass = virginica", fillcolor="#8139e5"] ;
8 -> 10 ;
}